le_net5/conv2d/kernel:0
(5, 5, 3, 6)
[[[[-1.96204841e-01  2.23986417e-01  7.57168233e-02  1.68729812e-01
    -1.78894147e-01 -2.16414109e-01]
   [-8.38151127e-02  1.51220977e-01  6.99664047e-03  6.59879372e-02
     1.01528771e-01 -3.79456654e-02]
   [ 8.92880335e-02 -8.94028768e-02  1.31052271e-01 -4.42257710e-02
     2.35621735e-01  2.49068707e-01]]

  [[-3.77276726e-02  1.07011057e-01 -7.26893311e-03 -2.16217227e-02
    -1.81250080e-01 -1.42907232e-01]
   [ 1.00296818e-01  3.30602564e-02  1.50098965e-01 -1.02005176e-01
     3.62612940e-02  9.83639061e-02]
   [ 2.45094746e-01 -2.37054244e-01  2.22884014e-01 -1.11866221e-02
     2.80465335e-01  3.02281976e-01]]

  [[-1.19309939e-01  2.01921970e-01  6.23350814e-02 -7.74267241e-02
     4.32051346e-02 -8.21465626e-02]
   [ 3.11733205e-02  1.46103382e-01  1.51262820e-01 -1.11451037e-01
     3.02507598e-02  1.13111846e-01]
   [ 8.35243762e-02  1.86287193e-03  1.09400980e-01 -3.33621651e-01
     2.85085272e-02  1.19304560e-01]]

  [[-2.48168986e-02 -1.29405811e-01  1.42014977e-02  1.28079668e-01
    -1.10622458e-01  1.54359657e-02]
   [ 1.04948439e-01 -1.07977308e-01 -1.23307191e-01  4.16061934e-03
    -1.09559447e-01  8.41393918e-02]
   [ 2.23296434e-01 -2.82715052e-01  1.95312440e-01 -6.43596798e-02
     5.63530736e-02  1.70903772e-01]]

  [[-1.58028051e-01 -4.31579165e-02 -1.57525331e-01  1.09873958e-01
    -1.92096680e-01 -1.88706487e-01]
   [-7.97295012e-03 -1.68803930e-01 -8.80708471e-02  1.41341582e-01
    -5.98239247e-03 -7.40852952e-02]
   [ 1.41618505e-01 -3.77016544e-01  1.71149552e-01  8.73982683e-02
     1.12639718e-01  2.25064769e-01]]]


 [[[ 4.69967490e-03  1.66146681e-01  1.95565056e-02  8.00630376e-02
    -2.80380808e-02 -6.33335933e-02]
   [ 1.53945491e-01  6.84844926e-02  6.11689221e-03 -1.49793342e-01
     1.00834601e-01  1.69988573e-02]
   [ 6.66562989e-02 -7.22579509e-02  2.12406233e-01 -2.56008834e-01
     1.29724033e-02  1.65300325e-01]]

  [[-1.16886735e-01 -6.06390880e-03  6.16509765e-02  3.08385445e-03
    -1.21729121e-01 -1.03808112e-01]
   [ 1.37357101e-01  3.61732394e-02 -5.00778668e-02 -1.74353808e-01
     7.60293677e-02  5.69010116e-02]
   [ 1.03829451e-01 -1.94117799e-01  1.20143719e-01 -2.38346964e-01
     2.97713220e-01  2.97468424e-01]]

  [[-7.48704672e-02 -3.70423831e-02 -8.82690365e-04  7.80867040e-02
    -2.59563804e-01 -2.36135706e-01]
   [-4.37236652e-02  6.67332932e-02  5.64301610e-02 -2.06975341e-01
     1.33798122e-01  9.18314382e-02]
   [ 1.39000073e-01 -7.72328451e-02  1.76421165e-01 -1.56430274e-01
     2.14996770e-01  3.19671273e-01]]

  [[-1.20607689e-01  6.50065318e-02 -1.29223213e-01  1.70348585e-01
    -1.74584277e-02 -3.45725641e-02]
   [ 5.59059381e-02  1.37619376e-01  5.53772077e-02  1.49153665e-01
    -6.61809295e-02 -9.63736251e-02]
   [ 1.50274724e-01 -3.09520662e-01  4.61022966e-02 -6.74803033e-02
     2.63339698e-01  2.58644819e-01]]

  [[-7.77927414e-02 -7.78235355e-03 -7.12104738e-02  1.30192190e-01
    -1.23786647e-02 -2.78175087e-03]
   [-1.30169928e-01 -1.98297426e-01  6.78390861e-02 -1.84888002e-02
    -2.33608056e-02 -1.24753401e-01]
   [ 1.19492322e-01 -1.71496540e-01  1.96885049e-01  1.05026420e-02
     3.42302382e-01  3.35572988e-01]]]


 [[[-1.47875100e-01 -9.10391286e-02 -1.93966627e-01  1.06356949e-01
    -1.25967279e-01 -1.63205877e-01]
   [ 1.57795753e-02  1.30999953e-01 -1.47229373e-01 -1.04614541e-01
     4.90061454e-02 -1.12186521e-01]
   [ 1.35165498e-01 -4.57947999e-02  1.88886121e-01  2.48879008e-02
     1.93305030e-01  8.11321884e-02]]

  [[-1.65609092e-01 -1.74405072e-02 -1.66392133e-01 -1.11400135e-01
    -3.22187096e-02 -1.99943915e-01]
   [ 5.95448129e-02  1.43070683e-01 -6.56917542e-02 -2.40161642e-03
     5.00929467e-02  4.02053073e-02]
   [ 1.71237543e-01 -2.31688507e-02  1.53421089e-01 -2.25905061e-01
     5.92847243e-02  1.53678954e-01]]

  [[-5.06487601e-02  1.49805456e-01 -5.75718805e-02 -3.12885791e-02
    -1.41356304e-01 -1.63161799e-01]
   [-1.16630800e-01  1.66659296e-01 -1.76339999e-01 -1.37331024e-01
     8.72857124e-02 -8.03003907e-02]
   [ 1.70969412e-01 -9.50168744e-02  1.94663927e-01 -1.11099921e-01
     2.94954360e-01  4.10141014e-02]]

  [[ 7.07363337e-03  6.65071607e-02 -3.18569280e-02 -1.77188627e-02
    -4.09051850e-02 -1.18677847e-01]
   [ 1.15881478e-02  5.08405045e-02  1.17181642e-02 -4.44950052e-02
     4.53416333e-02 -2.53254594e-03]
   [ 1.49502605e-01 -3.05366307e-01  1.55593812e-01 -2.13934109e-01
     4.50877212e-02  2.82949656e-01]]

  [[-2.30692625e-01  5.88198118e-02 -5.46333306e-02  5.92188351e-02
    -2.16517910e-01 -1.90589011e-01]
   [ 1.20713986e-01  2.15611383e-02 -1.86226562e-01  7.29536414e-02
     5.91917150e-02 -1.60355747e-01]
   [ 6.84770942e-02 -1.26229569e-01  1.58263624e-01  8.19417536e-02
     2.20168471e-01  9.72821638e-02]]]


 [[[-1.68765217e-01  7.74828494e-02 -5.59823178e-02  2.86813118e-02
    -1.90523252e-01 -5.22223972e-02]
   [ 1.22444436e-01 -7.41644129e-02  6.03913665e-02  6.87351599e-02
    -7.50548840e-02 -9.69293863e-02]
   [ 2.33286247e-01 -8.95720273e-02  1.78420737e-01 -1.55937895e-01
     1.08349267e-02  2.48825893e-01]]

  [[-2.12293074e-01 -3.60223614e-02 -1.55595299e-02  1.16228297e-01
    -1.36749581e-01 -1.32338822e-01]
   [-1.60867162e-02  1.03233077e-01 -1.28927067e-01 -1.64114282e-01
     4.95220954e-03 -1.98010251e-01]
   [ 3.92224714e-02 -3.56616043e-02  2.01754361e-01 -2.51304358e-01
    -1.58210238e-03  8.13301653e-02]]

  [[-1.87414929e-01 -6.93286350e-03 -1.08933367e-01  1.07393421e-01
    -1.32326558e-01 -3.05631440e-02]
   [-2.46863253e-02  9.34174806e-02 -4.68598977e-02 -1.80952232e-02
     8.74915998e-03 -4.89616171e-02]
   [ 2.86165059e-01 -2.43976712e-01  2.26808280e-01  2.00874563e-02
     1.15501925e-01  1.49065405e-01]]

  [[-2.83723861e-01  1.69013843e-01 -2.47839466e-01  1.84079468e-01
    -1.43106714e-01 -3.44868675e-02]
   [ 3.97673920e-02  1.56671509e-01 -9.65421796e-02  7.82185886e-03
    -1.48691922e-01 -2.24805683e-01]
   [ 2.35317916e-01 -2.87890732e-01  2.92548448e-01 -1.62439793e-01
     8.45786855e-02  2.28151187e-01]]

  [[-5.14307730e-02 -3.45786996e-02 -1.73182026e-01 -2.37446744e-02
    -9.71078277e-02 -2.26729020e-01]
   [ 1.81466457e-03 -4.15448612e-03 -3.13700996e-02  3.39734741e-02
    -2.51018137e-01 -1.98030546e-01]
   [ 2.40413591e-01 -2.52125293e-01  5.23939207e-02 -1.63682103e-01
     2.24749774e-01  3.91833372e-02]]]


 [[[-1.70677215e-01  2.86980420e-02  4.01055627e-02 -2.32394668e-03
    -2.57981867e-01 -5.87666221e-02]
   [-4.16907424e-05  1.05781257e-02 -5.43241762e-02 -1.01300880e-01
    -1.57833636e-01 -2.01622695e-01]
   [-1.53499879e-02 -1.17004020e-02  1.16413727e-01  5.61511293e-02
     2.01619759e-01  1.78210557e-01]]

  [[-2.19497532e-01  2.18476132e-02  5.90987317e-02  6.89381734e-02
    -2.29461148e-01 -2.32970282e-01]
   [ 9.13924947e-02  8.67581218e-02 -2.42410451e-01 -1.02920227e-01
    -2.62373626e-01 -3.42912297e-03]
   [ 2.74834096e-01 -1.29979849e-01  2.28964061e-01 -1.71837926e-01
     2.43510619e-01  1.63835019e-01]]

  [[-2.72560179e-01 -4.57144678e-02 -1.94528505e-01 -9.85093936e-02
    -2.89224416e-01 -1.76043481e-01]
   [ 5.90141080e-02  2.25593448e-01 -2.29070991e-01  2.11012483e-01
    -2.44250983e-01 -1.59984291e-01]
   [ 2.01644421e-01 -1.85186654e-01  1.42273400e-03 -1.99693650e-01
     1.38674065e-01  2.17178330e-01]]

  [[-1.18993878e-01  1.14898928e-01 -3.64055969e-02 -2.45650355e-02
    -3.18271220e-01 -9.89258289e-02]
   [-1.32452667e-01  1.54484361e-01 -4.57160473e-02  7.15933815e-02
    -1.08344436e-01 -2.35380709e-01]
   [ 2.77559906e-01 -1.59484297e-01  2.69544780e-01 -1.98867097e-01
     1.72972530e-01  2.43386328e-01]]

  [[-1.39111996e-01  1.09129995e-01 -1.25203848e-01 -1.02354601e-01
    -3.02852005e-01 -1.20268516e-01]
   [-2.18302056e-01  1.59789339e-01 -8.79074708e-02  1.16823241e-01
    -1.62693739e-01 -8.52970481e-02]
   [ 2.24818170e-01 -1.25617892e-01  1.46834224e-01 -1.97927147e-01
     1.60913274e-01  2.43824840e-01]]]]
le_net5/conv2d/bias:0
(6,)
[-0.18180215  0.16097748 -0.16194312  0.12072451 -0.18406904 -0.17854926]
le_net5/conv2d_1/kernel:0
(5, 5, 6, 16)
[[[[-1.78124756e-01 -3.73434450e-04 -5.24970442e-02 ... -8.42859298e-02
    -4.66134176e-02 -8.10220614e-02]
   [ 1.32731631e-01  2.95313120e-01  1.99382186e-01 ...  7.70867914e-02
     1.56631649e-01  8.99577960e-02]
   [-4.12117690e-02 -9.64237899e-02 -1.34732828e-01 ... -1.78378403e-01
    -1.33612454e-01 -1.04439363e-01]
   [ 1.04277074e-01  1.83750570e-01  2.10965648e-01 ...  2.47129440e-01
     3.11854720e-01  3.96990851e-02]
   [-1.09121412e-01 -7.20849037e-02 -4.26771976e-02 ... -3.06663290e-02
    -1.42332301e-01 -1.98928371e-01]
   [-2.66451687e-01 -5.17580174e-02 -1.03294276e-01 ... -1.45591900e-01
    -4.67300266e-02 -1.98039070e-01]]

  [[-1.29247636e-01 -3.65607813e-02 -5.27495928e-02 ... -2.03775600e-01
    -9.38281566e-02 -1.07229061e-01]
   [ 1.37512386e-01  1.81230292e-01  2.20183283e-01 ...  1.07733019e-01
     2.17490688e-01  2.62215018e-01]
   [-9.83987674e-02 -1.03970870e-01 -4.20612022e-02 ... -7.56023675e-02
    -1.36305839e-02 -7.26330131e-02]
   [ 2.35632524e-01  1.77598774e-01  1.18276320e-01 ...  1.84157521e-01
     3.17879975e-01  2.61032637e-02]
   [-2.55172759e-01 -4.79707345e-02  1.29190702e-02 ... -1.26339912e-01
    -2.81112511e-02 -3.28987017e-02]
   [-1.95436195e-01 -8.89735073e-02 -1.98701099e-01 ... -4.46775891e-02
     2.98117362e-02 -1.45194829e-02]]

  [[-2.27954105e-01  1.02551021e-02 -1.02523141e-01 ... -1.02075517e-01
    -1.08769387e-01 -1.22433946e-01]
   [ 1.08289249e-01  1.11278117e-01  2.68857360e-01 ...  9.67030749e-02
     1.66899160e-01  2.22860754e-01]
   [-1.67139262e-01 -1.39404088e-01 -7.89833814e-02 ... -8.97390023e-02
    -5.84922247e-02 -1.40176816e-02]
   [ 1.84651300e-01  2.03809813e-01  1.87417328e-01 ...  2.01473057e-01
     2.57255524e-01  1.77097097e-01]
   [-2.13920638e-01 -1.04291737e-01 -1.54918894e-01 ... -1.21048592e-01
     2.09853817e-02 -3.52833122e-02]
   [-7.05059692e-02 -1.76945195e-01 -1.57966033e-01 ... -1.67634025e-01
    -1.11941516e-01 -2.26207376e-01]]

  [[-8.22437480e-02 -1.04914136e-01  3.41427922e-02 ... -1.46609470e-01
    -7.53934775e-03 -1.26362937e-02]
   [ 3.09202373e-01  2.14739427e-01  2.84581095e-01 ...  1.52981982e-01
     1.48363337e-01  2.36150846e-01]
   [-4.19912562e-02 -1.04687177e-01 -7.84442425e-02 ... -1.68225333e-01
    -5.38829081e-02 -1.14414811e-01]
   [ 7.93064535e-02  1.69766486e-01  1.30133823e-01 ...  1.82145923e-01
     2.19782174e-01  1.77356035e-01]
   [-2.31735557e-01 -4.39900300e-03 -1.15352117e-01 ... -2.21310705e-01
    -2.23578680e-02 -9.98595580e-02]
   [-1.48159504e-01 -1.05953984e-01 -1.77691862e-01 ... -1.99230582e-01
    -9.08341780e-02 -1.58550739e-01]]

  [[-9.88009498e-02 -1.30678922e-01 -1.61309004e-01 ... -1.98292539e-01
    -1.10720627e-01 -3.64067703e-02]
   [ 2.67211229e-01  8.86621848e-02  2.45941028e-01 ...  1.11152411e-01
     1.15815215e-01  1.03591010e-01]
   [-2.11788327e-01 -1.52475268e-01  2.41593979e-02 ... -1.21651120e-01
    -4.60872501e-02  2.26830095e-02]
   [ 1.78267509e-01  2.82796711e-01  1.95772052e-01 ...  1.19691640e-01
     2.07757607e-01  1.52715683e-01]
   [-2.35012308e-01  1.49687408e-02 -5.85028194e-02 ... -2.31205449e-01
    -5.54687679e-02 -2.16260701e-02]
   [-2.66747117e-01 -1.60865054e-01 -1.24877580e-01 ... -1.28160611e-01
    -1.62154272e-01 -2.05451161e-01]]]


 [[[-6.70145452e-02 -1.32641643e-01  4.17269692e-02 ... -1.88390195e-01
    -6.71170354e-02 -2.69510783e-02]
   [ 2.48768836e-01  1.77692950e-01  2.94339538e-01 ...  1.59366846e-01
     2.74112254e-01  1.26367718e-01]
   [-1.18111834e-01 -6.75894646e-03  5.69918938e-02 ... -6.30988106e-02
     7.95721412e-02  1.07544102e-02]
   [ 1.90169767e-01  2.44482309e-01  1.02595016e-01 ...  1.62395939e-01
     2.29225099e-01  1.00184098e-01]
   [-8.46476573e-03 -1.17178001e-01 -1.56339884e-01 ... -5.26535930e-03
    -2.29608566e-02 -1.32053256e-01]
   [-5.56319170e-02 -1.29386231e-01  1.95733737e-02 ... -6.57278523e-02
    -2.42518354e-02 -7.10667446e-02]]

  [[-1.31582290e-01 -1.64130867e-01 -7.38028437e-02 ... -6.51352108e-02
    -1.47370100e-01  2.28660051e-02]
   [ 1.82231233e-01  2.14350313e-01  2.38261014e-01 ...  1.05273299e-01
     1.62342906e-01  1.15464993e-01]
   [-7.60783926e-02 -7.22442865e-02 -1.29782379e-01 ... -1.04603827e-01
    -4.34872359e-02 -5.22312149e-02]
   [ 1.48240134e-01  2.75642782e-01  1.30278766e-01 ...  2.09919289e-01
     2.88664401e-01 -4.27537113e-02]
   [-1.94926083e-01  4.24666554e-02 -6.36812896e-02 ... -1.27869297e-03
     3.88824940e-02 -3.06403805e-02]
   [-2.64648069e-02 -4.62813899e-02 -1.49279833e-01 ... -1.36351079e-01
     3.14236879e-02 -1.02099985e-01]]

  [[-1.62567198e-01 -1.46524593e-01  8.11397564e-03 ... -2.00212166e-01
     2.72796415e-02 -5.70104122e-02]
   [ 9.62591767e-02  2.07023010e-01  1.52467459e-01 ...  1.66745037e-01
     1.65527403e-01  1.73645034e-01]
   [-1.36712715e-01 -4.92878929e-02 -5.94986901e-02 ... -1.66871071e-01
    -1.08857617e-01 -5.61731644e-02]
   [ 2.45096266e-01  2.34556645e-01  1.11816473e-01 ...  1.75564423e-01
     2.91032165e-01  1.01621546e-01]
   [-3.76377180e-02 -2.61825998e-03 -9.89786088e-02 ...  1.84511226e-02
    -1.34596810e-01 -6.90799803e-02]
   [-8.55883434e-02 -1.16566688e-01 -3.87975760e-02 ... -1.60268724e-01
    -1.56898052e-01 -1.32862777e-01]]

  [[-1.74516514e-01 -1.03620030e-01  2.53725611e-02 ... -4.68222313e-02
     1.17066465e-02 -1.50679916e-01]
   [ 1.07408382e-01  2.02497706e-01  1.71447247e-01 ...  2.40951791e-01
     1.05945252e-01  2.03284621e-01]
   [ 8.73227511e-03 -4.95590456e-02  5.58083877e-02 ... -1.25272293e-03
    -4.30194512e-02  2.80635478e-03]
   [ 6.15967438e-02  1.61465183e-01  2.20751390e-01 ...  9.29841250e-02
     2.46235415e-01  3.36562097e-02]
   [-2.65906099e-02 -1.41188771e-01 -6.68919533e-02 ... -3.85664292e-02
    -7.82819912e-02 -1.57799840e-01]
   [-3.53166759e-02 -1.35805249e-01 -6.35325983e-02 ... -7.19573274e-02
    -1.25470325e-01 -1.96823254e-01]]

  [[-7.35040307e-02 -1.00037068e-01  3.07438821e-02 ... -1.90910801e-01
    -9.79344621e-02 -5.83073050e-02]
   [ 1.24925189e-01  1.21977881e-01  2.45722488e-01 ...  6.60988837e-02
     2.23683864e-01  1.90574512e-01]
   [ 3.28390971e-02 -1.17359713e-01 -1.00250110e-01 ... -6.30870163e-02
    -3.59815955e-02 -2.80404780e-02]
   [ 3.95658650e-02  1.58866227e-01  8.07855725e-02 ...  1.72493696e-01
     1.69858918e-01  1.48297921e-01]
   [-1.85702592e-01  1.09519782e-02 -4.63616475e-02 ... -5.22227548e-02
    -9.24062133e-02 -4.82942425e-02]
   [-1.78514212e-01 -3.83746363e-02 -6.88756406e-02 ... -4.08522375e-02
    -5.06761000e-02 -4.67781164e-02]]]


 [[[ 5.07049561e-02 -5.80909476e-02 -1.05647549e-01 ... -7.81179219e-02
    -1.13886833e-01  1.97035521e-02]
   [ 1.20097712e-01  2.52421558e-01  2.31431827e-01 ...  3.57732326e-02
     2.81211019e-01  6.75906390e-02]
   [-2.69174483e-02 -4.14709114e-02  6.34792969e-02 ... -1.36895299e-01
    -3.77996117e-02  1.01095609e-01]
   [ 5.26863262e-02  2.56630868e-01  2.13578030e-01 ...  9.88986194e-02
     2.19875515e-01 -1.17828205e-01]
   [-9.04470086e-02 -7.52771497e-02 -8.19377080e-02 ... -1.08768389e-01
    -9.23899636e-02 -9.88894030e-02]
   [-1.19329795e-01 -9.42916796e-02 -5.69370911e-02 ... -1.60632744e-01
    -1.54795021e-01 -1.31913006e-01]]

  [[ 5.25804460e-02 -3.70969586e-02 -5.30756712e-02 ... -2.63484400e-02
    -1.00688919e-01 -9.30620953e-02]
   [ 4.90719117e-02  7.31821582e-02  1.36982992e-01 ...  1.65728599e-01
     1.73726887e-01  4.22250070e-02]
   [ 4.12454046e-02  5.15050963e-02 -7.16095641e-02 ... -2.56862473e-02
     2.19123322e-03 -4.40523401e-02]
   [ 6.59687817e-02  1.56305432e-01  2.59307057e-01 ...  1.18475616e-01
     2.95973688e-01  3.14819887e-02]
   [-1.23077147e-01 -3.18458900e-02  3.64647210e-02 ...  2.18921490e-02
    -3.41828316e-02 -3.58792245e-02]
   [-1.15887955e-01 -1.50244117e-01  3.19503322e-02 ...  2.16388348e-02
    -1.60444975e-01 -5.09738699e-02]]

  [[-6.02161735e-02 -1.05493240e-01 -9.36495438e-02 ...  1.86689887e-02
    -1.03108078e-01 -1.11943759e-01]
   [ 1.77956179e-01  1.59612983e-01  1.82020709e-01 ...  1.89431489e-01
     2.72181720e-01  2.20559910e-01]
   [-6.35144562e-02  6.30777776e-02 -1.19875662e-01 ... -1.47419438e-01
    -9.08981413e-02  5.95248304e-02]
   [ 1.56061694e-01  2.39878371e-01  1.42038539e-01 ...  1.66498899e-01
     1.79614738e-01 -3.72403786e-02]
   [-1.00201614e-01  5.20343967e-02 -1.57077342e-01 ... -8.45883638e-02
     2.58357227e-02 -2.94593517e-02]
   [-1.11734696e-01  6.92733470e-03 -1.95392296e-02 ... -7.91781992e-02
    -1.41425490e-01 -1.04978323e-01]]

  [[-7.31110945e-02 -6.91179186e-02  4.24124897e-02 ... -1.12937815e-01
     4.12427224e-02 -8.56176466e-02]
   [ 1.47161677e-01  5.84472641e-02  2.76261836e-01 ...  9.96731669e-02
     1.19225956e-01  3.62972841e-02]
   [-8.42603594e-02 -8.35003480e-02 -2.68901029e-04 ... -1.33730650e-01
    -1.34390742e-01  6.98376447e-02]
   [ 2.41904818e-02  1.93285778e-01  1.11203715e-01 ...  2.69132853e-01
     1.01846211e-01  2.40407940e-02]
   [-1.30851185e-02 -8.98377225e-02 -1.37385339e-01 ... -5.24794310e-02
    -9.10209417e-02 -1.64006606e-01]
   [-1.81509733e-01 -5.94987124e-02 -4.20273356e-02 ...  4.01754230e-02
     8.25204980e-03 -1.89471871e-01]]

  [[ 7.68772606e-03 -8.70012343e-02 -2.78352643e-03 ... -1.22189552e-01
    -3.78305884e-03  8.74899179e-02]
   [ 2.01908886e-01  1.82006642e-01  1.22647144e-01 ...  3.35644223e-02
     2.43161812e-01  1.35702476e-01]
   [-1.37854517e-01 -1.29579054e-02 -1.50264688e-02 ... -1.52627930e-01
    -8.83063525e-02 -1.11153526e-02]
   [ 9.75095779e-02  1.35562226e-01  1.98593855e-01 ...  2.01228425e-01
     6.23268746e-02  1.08506717e-01]
   [-6.54001487e-03 -8.71481225e-02 -1.33759990e-01 ...  6.44310713e-02
    -1.11311294e-01 -3.42897177e-02]
   [ 1.12904944e-02  2.82020643e-02 -5.29237799e-02 ... -2.21778862e-02
    -1.47778332e-01 -6.71744812e-03]]]


 [[[ 5.35514317e-02 -1.06995702e-01 -5.59856221e-02 ... -6.29743859e-02
     1.29485587e-02 -5.49592376e-02]
   [ 1.54603466e-01  8.77503380e-02  2.09972605e-01 ...  1.84409440e-01
     1.66515276e-01  1.54982567e-01]
   [-1.13784425e-01 -1.32344350e-01 -1.39436591e-02 ... -6.55498207e-02
     6.54362664e-02  1.14546187e-01]
   [ 5.15105799e-02  2.40265056e-02  1.93100527e-01 ...  5.22018597e-02
     3.89017984e-02 -3.92064005e-02]
   [-1.10382318e-01 -1.52004167e-01  4.01511183e-03 ... -1.01295829e-01
    -4.39969897e-02 -1.65455744e-01]
   [-3.41011509e-02 -5.41304238e-02 -1.06207542e-01 ... -1.55049443e-01
    -1.52245283e-01 -6.49280101e-02]]

  [[ 7.70870075e-02  3.89767885e-02 -4.36411761e-02 ...  2.42036339e-02
     5.69848120e-02 -1.24022784e-02]
   [ 4.75114882e-02  2.06030279e-01  2.89774716e-01 ...  6.88638985e-02
     1.05493851e-01  5.93103021e-02]
   [ 3.35220695e-02  2.08030269e-02 -6.01831116e-02 ... -5.43749221e-02
    -3.34576331e-02 -5.16110323e-02]
   [-1.25910137e-02  5.44265546e-02  1.32688925e-01 ...  1.89647958e-01
     1.62911981e-01 -1.24249510e-01]
   [-6.39244318e-02 -4.66055460e-02 -5.64569160e-02 ... -5.50913550e-02
     1.47943562e-02 -5.62784672e-02]
   [-1.57929361e-01 -2.56115049e-02 -1.55251920e-02 ... -5.65168299e-02
    -9.83727649e-02 -1.51664084e-02]]

  [[ 1.97064616e-02 -7.78153837e-02  5.05483150e-02 ... -1.27556697e-01
    -2.39703171e-02  5.58887534e-02]
   [ 1.37257725e-01  1.93460196e-01  2.07115948e-01 ...  1.09075986e-01
     7.03087598e-02  5.64558059e-02]
   [ 2.59554014e-02  9.29755159e-03 -8.13745409e-02 ... -1.48593351e-01
    -4.97123301e-02  5.62648401e-02]
   [ 1.01194538e-01  1.09338999e-01  1.11489244e-01 ...  8.26046094e-02
     2.41620272e-01 -9.74317417e-02]
   [-5.08075638e-04  4.34768647e-02 -6.50463551e-02 ... -4.81134467e-02
     1.20983534e-02 -5.67636937e-02]
   [-1.31952271e-01 -6.71800748e-02 -1.59919914e-02 ...  1.46317966e-02
    -1.42033204e-01 -9.82403830e-02]]

  [[-4.97653037e-02  3.56192365e-02 -1.81906540e-02 ... -2.92277634e-02
     3.18568237e-02 -2.85937786e-02]
   [ 3.19258384e-02  2.42668822e-01  1.78728729e-01 ...  1.28074601e-01
     1.53837934e-01  7.59026706e-02]
   [-7.58096203e-02 -1.50634935e-02  1.82817616e-02 ... -1.78638726e-01
     4.76136617e-02  4.04538475e-02]
   [ 9.59128141e-02  1.69201985e-01  2.22594976e-01 ...  8.72323439e-02
     1.61300644e-01 -1.08342968e-01]
   [ 4.15937603e-02 -1.01883613e-01  2.35859747e-03 ...  6.23168014e-02
    -1.38224289e-01 -1.77518532e-01]
   [-1.58698648e-01 -6.33820966e-02 -1.68106006e-03 ... -9.85549763e-02
    -1.28689826e-01 -7.22475862e-03]]

  [[-9.51098427e-02  1.99926570e-02 -9.09273922e-02 ...  4.27059084e-02
    -1.00915216e-01 -5.59140183e-02]
   [ 1.10196948e-01  1.09490275e-01  2.04070017e-01 ...  1.03980400e-01
     1.43897370e-01  4.15107422e-02]
   [-1.11641206e-01 -8.48542228e-02 -1.01467259e-01 ...  6.97995862e-03
    -8.24592076e-03  6.00921400e-02]
   [ 1.69950742e-02  9.20433551e-02  6.57031313e-02 ...  9.47064310e-02
     1.50718629e-01 -5.89501746e-02]
   [ 8.37997720e-03 -8.81258994e-02 -6.51093498e-02 ...  7.62808472e-02
    -1.89130958e-02 -1.59247771e-01]
   [-9.22895521e-02 -1.23113934e-02 -1.17366761e-01 ... -1.59005094e-02
     5.41201755e-02 -3.74441706e-02]]]


 [[[ 6.02346770e-02  4.34159450e-02  2.38861684e-02 ... -1.23293109e-01
    -3.91587801e-02  7.15645626e-02]
   [ 4.55692410e-02  1.37804121e-01  2.19138607e-01 ...  1.66706502e-01
     1.90467030e-01  3.21498513e-02]
   [-3.20536606e-02  1.89639274e-02 -2.20500100e-02 ... -5.50286844e-02
    -1.27981290e-01  3.77058703e-03]
   [-1.04475111e-01  7.18135610e-02 -1.86898820e-02 ...  9.26239714e-02
     8.54073763e-02 -3.75318900e-02]
   [-8.75974596e-02  1.88948419e-02 -2.17757765e-02 ... -1.23453721e-01
    -3.18640284e-02 -4.71173087e-03]
   [-1.24512203e-01 -1.47539690e-01 -1.40163392e-01 ... -1.00016348e-01
    -1.01278059e-01 -8.54966342e-02]]

  [[-4.14635539e-02  4.27738838e-02  7.98944160e-02 ... -1.73226576e-02
     3.53371464e-02 -1.11759827e-02]
   [ 1.58251971e-01  1.60476565e-01  1.73333853e-01 ...  1.01557039e-01
     1.46884635e-01  1.22884788e-01]
   [-1.06727034e-01 -8.71210024e-02 -9.64326933e-02 ... -6.70384467e-02
     2.30488703e-02 -5.18461838e-02]
   [ 7.61830062e-02  1.36450842e-01  1.00197159e-01 ...  6.61107339e-03
     8.33486915e-02 -5.93626052e-02]
   [-9.19560120e-02 -2.51457728e-02 -4.33656909e-02 ...  2.04666648e-02
    -1.69039339e-01 -1.52587011e-01]
   [-3.08301160e-03  1.69899855e-02  2.43371390e-02 ... -6.52068034e-02
    -1.15575671e-01 -1.23520913e-02]]

  [[ 2.19252445e-02 -4.74742316e-02  8.90649110e-03 ... -2.85199657e-02
    -9.04408693e-02  1.45316301e-02]
   [ 4.22631614e-02  8.38749185e-02  7.54011795e-02 ...  1.93758935e-01
     6.14875294e-02 -2.97530368e-02]
   [ 7.03619327e-03 -1.29654959e-01 -4.62895781e-02 ... -7.94182047e-02
    -6.23954013e-02  8.90812129e-02]
   [ 3.76347229e-02  7.43432716e-03 -8.28721561e-03 ...  6.78014383e-02
     1.62529185e-01 -7.28742555e-02]
   [ 4.28515784e-02 -5.27892374e-02 -1.42773375e-01 ... -2.80650351e-02
    -1.47971690e-01 -6.67604357e-02]
   [-3.54320481e-02 -2.56924368e-02 -1.10359296e-01 ... -8.24196115e-02
    -5.59635945e-02 -1.14018127e-01]]

  [[-8.03275481e-02 -2.52334923e-02 -5.27853593e-02 ...  2.18394492e-02
     3.62599269e-02  7.99133182e-02]
   [ 2.57380940e-02  1.74630657e-01  1.07266173e-01 ...  1.61630288e-01
     3.05926036e-02  3.88202071e-03]
   [-1.22867353e-01 -4.66008745e-02 -1.20450817e-01 ... -1.71343938e-01
     1.26442211e-02  1.02588266e-01]
   [ 5.39395437e-02 -6.89380977e-04  6.99471831e-02 ...  1.27484724e-01
     1.10510424e-01 -1.41069144e-01]
   [ 6.01976365e-02 -9.26571265e-02 -1.29847392e-01 ... -1.08465210e-01
    -1.25748068e-01 -2.61521637e-02]
   [-1.48345307e-01 -3.62862498e-02 -9.32690725e-02 ... -4.93773073e-02
    -4.88270028e-03 -3.22153457e-02]]

  [[-9.54646617e-03  5.32876626e-02  2.31328532e-02 ...  5.10689355e-02
    -6.16637133e-02  1.29434109e-01]
   [-8.47018510e-03  6.15330823e-02  6.87068626e-02 ...  7.39426613e-02
     1.41260520e-01  9.24036279e-02]
   [-8.04594979e-02 -6.86400384e-02 -1.93260424e-02 ... -1.65824339e-01
     2.03304901e-03 -4.32708524e-02]
   [-4.09590788e-02  1.22927867e-01  7.91953802e-02 ...  1.25864819e-01
     4.00143638e-02 -9.70540345e-02]
   [-6.76155835e-02 -1.24433964e-01 -6.73237955e-03 ... -9.39601287e-02
    -4.69456799e-02 -7.79949427e-02]
   [-1.19944185e-01  1.10674743e-02 -1.12909757e-01 ... -1.55587375e-01
     2.46168170e-02 -3.54190543e-02]]]]
le_net5/conv2d_1/bias:0
(16,)
[ 0.03083401  0.03959567  0.07151954  0.0412508   0.04224335  0.06773293
  0.02598209 -0.04655262  0.04725613  0.00101322 -0.05252666  0.05245339
  0.00397076 -0.01557102  0.04871867  0.04072762]
le_net5/dense/kernel:0
(400, 120)
[[-0.07807353  0.11817677  0.12308809 ... -0.05360885 -0.12685108
   0.1043245 ]
 [ 0.08542006  0.01515419  0.1282957  ...  0.11790735 -0.12819207
   0.08499591]
 [ 0.08741113  0.05939553  0.17122439 ...  0.03131731 -0.09953354
   0.05709524]
 ...
 [-0.04942314  0.01991695 -0.1012855  ... -0.14381424 -0.00471688
   0.07083966]
 [ 0.04837721  0.11225747 -0.13258414 ... -0.15296799  0.21973085
  -0.00635918]
 [ 0.00938784 -0.04546152  0.04066139 ...  0.0388799  -0.12339687
  -0.07593372]]
le_net5/dense/bias:0
(120,)
[-3.38480584e-02 -1.69442464e-02 -2.40058713e-02 -1.30928764e-02
  3.06867082e-02 -2.39319205e-02  9.72665939e-03 -8.82611144e-03
  2.14438792e-02  3.34767625e-02 -2.70756539e-02  1.41008720e-02
  9.90022533e-03 -1.05918748e-02  1.22910971e-02  3.87495346e-02
 -2.07806453e-02 -1.94472596e-02  1.50992610e-02 -4.76653241e-02
 -7.74154032e-04 -1.70067959e-02 -9.86365788e-03 -4.30627726e-03
  1.79953165e-02 -3.67566645e-02 -1.20973662e-02  3.64123983e-03
  1.67089999e-02 -4.18254621e-02 -2.27932781e-02  9.46776476e-03
  3.08641382e-02 -2.73183361e-02  1.14005217e-02  1.05836187e-02
 -2.25741975e-02  3.17170983e-03  1.55570719e-03  2.68300660e-02
 -2.18332782e-02  1.19258035e-02 -3.05740000e-03  2.44963076e-02
  4.54642363e-02 -3.62431072e-02 -8.06052890e-03  1.63177475e-02
  1.91371739e-02  1.71510484e-02 -5.41515052e-02 -1.95001010e-02
 -1.67349316e-02 -2.97521297e-02  1.44478995e-02  4.21996601e-02
  1.61468927e-02  2.58367956e-02  8.81279446e-03  3.86977978e-02
 -1.65571272e-02  1.60661824e-02 -1.57094318e-02  1.94262769e-02
  2.51849405e-02  3.26537564e-02  1.72109064e-02  1.39921121e-02
  2.41749082e-02 -2.20254231e-02  1.67007223e-02  3.73929070e-05
 -1.90562997e-02 -1.89896878e-02  9.53609683e-03 -6.73846947e-03
 -1.51329162e-02 -2.71502398e-02  2.08308268e-03 -6.10854663e-03
  1.54186347e-02  1.34020848e-02  2.16227844e-02 -5.43727307e-03
  2.29481794e-02  4.39386293e-02  8.49763304e-03  2.09330069e-03
 -4.29110252e-04 -2.39558294e-02  1.40049569e-02  1.42381536e-02
 -1.14819361e-02  1.94205809e-02 -1.80577636e-02 -3.78483422e-02
  1.79532301e-02  4.50036442e-03 -7.87396636e-03  1.39357904e-02
 -2.44799517e-02 -2.43743267e-02  1.53389070e-02 -1.74770374e-02
 -2.57382914e-02 -2.23651789e-02  1.38712302e-02 -8.23387131e-03
 -2.67150085e-02 -3.81008089e-02 -3.84071507e-02  1.09022567e-02
  1.44380080e-02  2.83447802e-02  2.02561934e-02 -2.29491200e-02
 -1.08152134e-02  1.51534909e-02 -2.21590716e-02 -1.55946547e-02]
le_net5/dense_1/kernel:0
(120, 84)
[[-0.10467988  0.09598789 -0.057473   ...  0.10694935  0.13954505
  -0.1795207 ]
 [ 0.02769316 -0.17736685  0.08906268 ... -0.17463423 -0.17834839
  -0.02065899]
 [ 0.1510646  -0.17119622 -0.09974574 ...  0.02430349  0.11485594
   0.08672217]
 ...
 [-0.04170706  0.18642788 -0.17339103 ...  0.16363905  0.08811112
   0.07043846]
 [-0.02943064 -0.15306671  0.00918434 ...  0.13773453 -0.1070762
  -0.16806236]
 [-0.13322748  0.08009731  0.05863572 ... -0.15971965  0.20327026
  -0.16786735]]
le_net5/dense_1/bias:0
(84,)
[-1.71676949e-02 -2.80505070e-03  2.36250882e-04 -6.93183532e-03
 -4.02887259e-03  3.47119127e-03 -1.00231338e-02 -4.04974259e-03
 -3.28230136e-03 -5.61382622e-03  4.65208339e-03 -3.19264643e-03
 -1.84287261e-02 -6.22962508e-03 -6.88077137e-03 -1.43025741e-02
  2.21210299e-03  3.13227996e-04 -9.49907955e-03 -3.52491811e-03
 -5.71229542e-03 -1.69221405e-02 -1.34574305e-02  2.97883828e-03
  4.29028273e-03  8.24875460e-05  5.75855956e-04 -1.01452060e-02
 -1.70650380e-03 -1.01960674e-02  1.69563591e-02  8.95224046e-03
 -1.05226105e-02  3.79776419e-03  5.81048429e-03 -4.36842936e-04
 -1.52300019e-02  1.14045581e-02 -1.70759745e-02  8.31644051e-03
 -2.23424993e-02 -4.16792138e-03 -6.66978303e-03 -1.19956071e-02
  1.15716166e-03  1.11866752e-02 -7.53935799e-03 -6.57028705e-03
 -5.32600423e-03  6.52568275e-03 -7.73789641e-03 -3.26272589e-03
  5.52225253e-03 -1.71462037e-02 -4.72835451e-03  2.69681262e-03
 -1.64045431e-02 -1.60426665e-02 -3.43753491e-03 -2.07904028e-03
  6.24947110e-03 -5.72483009e-03 -1.11497613e-03 -1.92411467e-02
 -2.74686725e-03 -2.74603534e-03 -1.76093727e-02 -9.34714824e-03
 -1.77759491e-02 -2.57955561e-03  5.43193938e-03  4.13167477e-03
  6.49785902e-03 -4.35927277e-03 -5.14983200e-04  4.03849408e-03
 -5.08930255e-03  6.83835801e-03 -5.97427739e-03 -1.09919943e-02
 -2.22407058e-02  4.42978507e-03 -3.52239027e-03 -1.76301748e-02]
le_net5/dense_2/kernel:0
(84, 10)
[[ 8.98166820e-02  1.34431109e-01  2.68125571e-02  2.38379762e-01
   1.20859079e-01 -1.98336840e-01  1.24743529e-01  2.39414036e-01
  -1.69312526e-02 -1.36900485e-01]
 [ 2.82777935e-01 -8.43991935e-02 -1.28754705e-01 -7.92374611e-02
  -1.31106421e-01  8.02233294e-02  1.84444994e-01 -2.91780800e-01
   1.74171448e-01 -7.87978396e-02]
 [-2.17360258e-01 -4.49095555e-02 -1.01676784e-01  1.07295223e-01
  -1.29683157e-02  2.09375322e-01 -1.37658209e-01 -2.22358674e-01
  -1.81052759e-01  1.93676129e-01]
 [-1.51390210e-01  1.83313861e-02 -1.03292257e-01  1.51338443e-01
  -1.25587165e-01 -9.86572728e-02 -2.74871528e-01  1.00474611e-01
  -2.14201510e-01  2.20359519e-01]
 [ 7.20512271e-02  1.68977957e-03 -1.83994621e-01 -1.50460139e-01
  -1.44666821e-01 -2.03714266e-01 -1.31521881e-01  2.28192970e-01
  -4.35283855e-02  2.57914245e-01]
 [-6.29026890e-02 -2.70345479e-01  2.89167494e-01  2.59330571e-01
   1.26438260e-01  1.31463677e-01 -1.51831731e-01  1.41024798e-01
   1.42271459e-01 -3.06004044e-02]
 [-1.52518004e-01  4.33420017e-03 -1.74353093e-01 -2.52111703e-01
   1.24035589e-01 -1.40238002e-01  2.62171388e-01  2.60969281e-01
  -3.49301517e-01 -2.49358173e-02]
 [ 1.56350538e-01  3.10605228e-01 -2.08470002e-01  8.86336118e-02
  -7.78307542e-02 -2.19072238e-01  3.30911241e-02  3.12267132e-02
   1.54156044e-01 -7.03345835e-02]
 [-6.53250515e-02  1.01154417e-01  2.05020130e-01  2.05548018e-01
  -1.91506952e-01 -9.61813033e-02 -8.45424160e-02 -1.37909338e-01
   1.69121027e-01 -2.38710627e-01]
 [-2.39358414e-02 -3.32790650e-02 -2.72492692e-02  2.28267729e-01
   2.38791838e-01 -1.33077696e-01  4.94952947e-02  1.67261600e-01
  -9.30806473e-02  1.98955476e-01]
 [ 1.52938217e-01 -5.74855059e-02 -2.80233659e-02  9.95671898e-02
   2.07148522e-01  1.62992656e-01  2.44464889e-01  5.35353869e-02
   2.51878798e-01 -2.82506913e-01]
 [-1.31515965e-01 -2.45595686e-02  1.03202770e-02  1.99276879e-01
   1.02692693e-02  1.41555458e-01  1.11387417e-01 -1.28701746e-01
  -1.73863545e-01 -2.37200096e-01]
 [-8.88636708e-02 -1.77197501e-01 -6.85688807e-03  3.89262922e-02
  -1.94266543e-01 -1.04618087e-01  2.46743873e-01 -1.44109741e-01
  -1.43425241e-01  1.40022978e-01]
 [ 2.13328987e-01 -1.87373459e-01 -1.59555599e-01  1.14844680e-01
   7.15152025e-02 -1.83784425e-01 -2.31168345e-01 -2.37307459e-01
  -6.18743040e-02  2.08376154e-01]
 [-6.10762015e-02 -1.09380908e-01  1.85684767e-02  1.87630430e-02
   5.64682744e-02  1.06104918e-01  8.65665823e-02 -1.60782114e-01
  -8.88917074e-02 -1.42614678e-01]
 [ 2.36616284e-01  3.14814001e-02 -5.96797727e-02  1.57267585e-01
  -1.47425849e-03  1.36958808e-01  1.47980019e-01 -2.23448247e-01
  -7.72003308e-02  2.35432163e-01]
 [-2.73148865e-01  2.02546865e-02 -1.80230170e-01 -2.55752712e-01
   1.20394900e-02  1.02612942e-01 -2.80696809e-01  1.10982686e-01
  -3.99566852e-02  1.44861385e-01]
 [-4.69668359e-02 -3.21253054e-02 -1.25990450e-01  6.32914826e-02
  -1.33064330e-01  9.69976038e-02  2.13979512e-01  1.49088934e-01
  -2.91004032e-01  2.26946786e-01]
 [-2.16375172e-01  1.42554045e-01 -1.89803436e-01 -1.86139748e-01
   3.35557722e-02 -7.08053336e-02 -1.44568346e-02  2.56553531e-01
   6.63736984e-02  2.26372719e-01]
 [ 1.39041379e-01  5.99910244e-02 -2.22694408e-02 -6.13884488e-03
   2.68625081e-01 -1.41538039e-01 -1.35436282e-01 -1.56172007e-01
  -1.36673421e-01 -2.43960157e-01]
 [-3.20797376e-02  1.32994220e-01 -8.64322111e-02  1.06283173e-01
  -5.41607700e-02  1.65921420e-01  1.89893037e-01 -3.01154088e-02
  -1.18416995e-01 -2.61694908e-01]
 [ 2.91652471e-01 -1.80788964e-01  8.22671130e-02  1.23572618e-01
   3.83629166e-02  2.24673361e-01 -1.87688246e-01  7.50795603e-02
  -3.80181745e-02 -1.36478707e-01]
 [-1.56758055e-01  1.60598308e-01 -1.32226283e-02 -2.25328565e-01
  -2.32103571e-01  1.44101605e-01 -2.06223130e-02 -1.60717338e-01
  -8.79083276e-02  5.46794757e-02]
 [-1.18805289e-01  1.25943199e-01 -1.65297136e-01  2.07559034e-01
   9.24354494e-02  5.62740192e-02  1.42006129e-01 -2.51138121e-01
   3.78373601e-02  2.65030831e-01]
 [-3.04945838e-02  1.64052829e-01  2.55323172e-01  2.18215689e-01
   1.17325440e-01  1.73888892e-01 -1.26083627e-01 -1.69336781e-01
  -8.44366550e-02  2.27117669e-02]
 [ 1.61003694e-01  8.85915980e-02 -1.87355757e-01 -2.37623081e-01
  -8.59907791e-02 -2.10426822e-01 -1.88079640e-01  1.35288849e-01
   1.33304983e-01  2.89838850e-01]
 [-9.86250490e-02  2.00032294e-01 -1.87340677e-01 -2.17403919e-01
   9.33718607e-02  1.42334864e-01  1.37593046e-01 -2.45371107e-02
  -2.12670371e-01 -3.66556197e-02]
 [ 1.67437658e-01  2.64995694e-01  2.19662786e-02  1.33828118e-01
  -2.99334042e-02  7.92052448e-02  6.19392842e-02  2.03191072e-01
   2.42493376e-01  4.02409509e-02]
 [-1.76593542e-01 -4.60638963e-02 -2.35475942e-01 -1.96470350e-01
  -8.50451291e-02 -2.11365774e-01  1.07651867e-01 -1.80262223e-01
   2.24734887e-01 -1.03435710e-01]
 [ 1.91074997e-01  1.57288268e-01 -1.22785121e-01  1.67990103e-01
  -1.61637396e-01  2.14827999e-01 -2.16269806e-01  9.83768851e-02
  -3.78449075e-02  2.19706103e-01]
 [-1.47632137e-01 -2.59668559e-01  1.77442759e-01 -2.11613312e-01
   1.34120677e-02  1.64206356e-01 -4.50816453e-02  5.00296839e-02
  -1.01731881e-01 -1.07446350e-01]
 [-2.95369953e-01 -1.90708682e-01 -1.24461256e-01  1.45280361e-01
   1.42524287e-01  2.68312752e-01 -1.09500885e-01  2.41863221e-01
   4.74667503e-03 -2.29181468e-01]
 [-2.57330596e-01 -5.65318838e-02  5.93825690e-02  9.68243107e-02
   2.12957934e-01 -2.11712345e-01  2.59215742e-01 -9.33924615e-02
  -1.57013208e-01 -1.62915051e-01]
 [ 1.25965640e-01  2.57818609e-01  5.71703650e-02  2.25211486e-01
   1.84113145e-01 -6.03987351e-02 -7.41380081e-02 -2.11276159e-01
  -2.17966348e-01  2.43339702e-01]
 [-1.33105561e-01 -1.43453896e-01  2.31375843e-01  6.13602810e-02
   2.55852759e-01 -4.55868943e-03 -7.49476301e-03  1.82993755e-01
  -1.39843196e-01  1.26692787e-01]
 [ 4.81814221e-02 -2.58241564e-01  2.65501589e-01  5.34227900e-02
   1.57545820e-01  5.75978979e-02  3.06177765e-01  2.34535351e-01
  -6.08946308e-02  7.65932724e-02]
 [ 1.56710431e-01 -1.30753607e-01  4.40198667e-02 -2.02083066e-01
  -2.31159180e-01  1.07235752e-01  6.82340935e-02  2.11049780e-01
  -1.99558020e-01  1.63191721e-01]
 [-6.73671216e-02  2.33645484e-01  2.27210820e-02  3.75605449e-02
   3.91607285e-02 -8.24797228e-02  3.80425006e-02  1.27036586e-01
   8.75927284e-02  9.31152627e-02]
 [ 8.25145245e-02  1.53699711e-01  2.61827469e-01 -1.01272948e-01
  -2.06807017e-01 -7.93692544e-02 -7.91309103e-02  4.72107939e-02
   2.80853603e-02 -1.20429605e-01]
 [ 6.30083829e-02  3.00126255e-01 -1.64760843e-01 -1.37269020e-01
   9.97998491e-02 -1.74909070e-01  1.63291365e-01  2.06548676e-01
  -2.31332779e-01  2.06071258e-01]
 [ 1.49543539e-01 -7.02203512e-02  1.11034565e-01 -2.36051634e-01
   1.34631395e-01 -1.74176082e-01 -1.02302939e-01 -1.77639380e-01
  -1.01046287e-01  1.06649652e-01]
 [ 1.91786230e-01  1.02865547e-01 -8.96711200e-02  7.60764256e-02
  -9.72282588e-02  2.46928588e-01  1.54912427e-01 -1.42195821e-01
  -2.40260765e-01 -2.48650163e-01]
 [ 1.29061595e-01  1.51202887e-01 -2.26769790e-01  9.54856202e-02
  -1.20969065e-01  1.87401801e-01 -2.04525784e-01 -2.32269153e-01
   1.28502324e-01 -1.90481275e-01]
 [-1.91366419e-01 -8.66747648e-02 -1.49993017e-01  1.79790705e-02
  -2.62356792e-02  1.91415325e-01 -2.32003294e-02  1.59049220e-02
   8.39210749e-02 -1.01490527e-01]
 [ 8.12381431e-02 -3.80204283e-02 -7.65829405e-04 -2.24676654e-01
  -1.25895813e-01 -1.36850700e-02 -1.58245206e-01 -9.33269858e-02
   6.08216673e-02 -8.78665317e-03]
 [ 1.34629861e-01  7.40038455e-02 -1.15311578e-01  1.18884981e-01
  -4.11120802e-02  1.46508098e-01 -2.25272223e-01  3.90717853e-03
   4.86560687e-02  1.23877250e-01]
 [-9.57841575e-02 -2.56699383e-01 -2.17939645e-01  3.00240368e-02
  -5.76311760e-02  1.68832932e-02 -2.82393038e-01  1.46042645e-01
   2.53521770e-01 -1.00254603e-01]
 [ 7.97729492e-02  2.13956520e-01  5.62003255e-02 -2.31975690e-01
  -1.86341256e-01 -2.67374307e-01  8.88321698e-02  4.27530184e-02
  -5.63173927e-02  1.64255455e-01]
 [ 1.83075275e-02 -6.22657361e-03  1.61833555e-01  4.02978342e-03
  -4.63600233e-02 -1.82002917e-01  9.89430919e-02 -1.03923723e-01
   4.79929745e-02 -1.32158145e-01]
 [-2.24088386e-01 -5.38348556e-02  7.43110254e-02  1.43734828e-01
  -4.06454783e-03  2.68359989e-01  1.89763203e-01  1.61300659e-01
   9.27399844e-02 -1.28276110e-01]
 [ 2.58401215e-01 -1.74515516e-01  1.68012694e-01  2.95387525e-02
  -1.06916651e-01 -1.40879333e-01 -2.86523908e-01 -3.13933849e-01
   2.12211981e-01  1.58460006e-01]
 [-9.94602740e-02  1.77119687e-01  2.17264533e-01 -1.03368662e-01
  -7.23623857e-02  2.43218288e-01  1.41077027e-01 -1.80298649e-02
   9.41170193e-03 -9.30852145e-02]
 [-1.52130555e-02  1.05743833e-01 -1.36246771e-01 -1.30481124e-01
  -2.13648424e-01 -2.12555319e-01 -2.72183478e-01 -4.94731478e-02
   2.81223059e-01 -1.14941597e-01]
 [ 2.24474460e-01  1.82860598e-01  5.63803874e-02 -9.44271088e-02
   8.81090611e-02 -2.50523508e-01  1.91007510e-01  1.56395480e-01
   2.80207485e-01 -3.90592441e-02]
 [-1.63722828e-01  7.62387812e-02  8.75334740e-02 -2.28363574e-01
  -2.13194668e-01 -1.81901291e-01 -2.97020286e-01 -2.11804975e-02
   1.21161602e-01 -1.02599762e-01]
 [-1.36146024e-01 -1.57688469e-01  1.50099367e-01 -3.17074768e-02
  -1.17401175e-01 -1.76780328e-01 -2.46523529e-01 -1.40243724e-01
   1.86528638e-01 -2.29960401e-02]
 [-1.82797745e-01 -2.73942769e-01 -1.19235449e-01  9.80903208e-02
   4.92502525e-02  1.33007228e-01  2.28283197e-01  2.23341197e-01
  -1.78863093e-01  9.47556645e-02]
 [ 3.12925726e-01 -2.24088877e-01  1.43366903e-02 -2.95169145e-01
  -1.43080890e-01 -4.59201634e-02  1.30079314e-01  1.27624825e-01
   1.33747458e-01  2.05095336e-01]
 [ 1.50371090e-01 -2.53758162e-01  1.97056711e-01  2.15214700e-01
  -4.46009375e-02 -2.06349064e-02  4.19634506e-02  1.32724568e-01
  -2.16359049e-01 -2.03146771e-01]
 [ 2.36551896e-01  8.76162276e-02 -1.00809410e-01  1.78334221e-01
   8.10164809e-02 -1.40758455e-01 -1.20667271e-01 -1.95880026e-01
   1.99167714e-01  2.52721250e-01]
 [ 2.25840062e-01 -2.18148679e-01 -1.78302050e-01 -2.01119974e-01
   1.10065937e-02 -2.77797543e-02 -2.72586435e-01  2.80676279e-02
   2.45620489e-01  2.60908276e-01]
 [-1.70386612e-01  1.06200390e-02  1.31296784e-01  2.05983609e-01
  -2.02121496e-01  8.23857486e-02  1.30858824e-01 -1.70583412e-01
   2.11897641e-01  5.94430566e-02]
 [-7.03082904e-02 -3.89007740e-02  1.88832298e-01  1.11407572e-02
   8.49665180e-02  7.62661397e-02 -1.52406329e-02 -1.20792901e-02
  -2.58571059e-01  1.49133126e-03]
 [ 5.31634949e-02 -3.01469248e-02  1.41273960e-01  1.89487040e-01
  -2.23122925e-01 -1.08791269e-01 -1.66065753e-01  1.59850240e-01
  -7.78599679e-02  2.64437161e-02]
 [-1.80705920e-01 -8.21514353e-02  2.41501123e-01  6.84027141e-03
   2.58534521e-01 -1.58910275e-01  8.33359510e-02 -8.39301497e-02
  -2.85967160e-02 -1.75874252e-02]
 [ 8.30260068e-02 -2.56442010e-01  9.10489410e-02 -1.65022403e-01
   4.98763612e-03  8.87993723e-02  1.55201972e-01  1.11353330e-01
  -2.38201424e-01 -1.98430917e-03]
 [-1.26359105e-01  1.37092188e-01 -7.74082020e-02 -2.57274061e-01
  -5.55755086e-02 -7.83557892e-02 -1.56067103e-01 -6.93814307e-02
   1.44032553e-01  1.92902759e-01]
 [ 1.64476391e-02  1.51811674e-01  2.59810627e-01 -8.72105435e-02
   3.67355235e-02  3.22277397e-02  2.09754288e-01 -4.40471098e-02
  -9.37023461e-02 -4.17371131e-02]
 [ 2.52536923e-01 -1.46419808e-01 -1.47797018e-01  4.12222035e-02
  -1.71451792e-01 -3.04765925e-02  1.70524657e-01  1.55622467e-01
   1.03032544e-01  2.42412940e-01]
 [ 1.10505052e-01 -1.24421000e-01  9.15681422e-02  2.26699933e-01
  -9.77873206e-02 -4.35982943e-02  1.30183741e-01 -7.62528786e-03
   2.23713338e-01 -2.04619586e-01]
 [ 2.09150180e-01  3.70732741e-03  1.25195146e-01 -1.62035644e-01
   2.05726236e-01 -6.24557287e-02  1.18323416e-01 -2.05152884e-01
  -2.20671277e-02 -2.48302624e-01]
 [-1.07429743e-01  4.34331149e-02  2.85621528e-02 -8.66721720e-02
   8.51442739e-02  6.64457902e-02  2.36248180e-01 -8.02434906e-02
   2.46894926e-01  1.32522807e-01]
 [-8.85246322e-02  2.78984934e-01 -4.49671112e-02 -2.08331615e-01
   8.19640905e-02 -1.31385982e-01 -1.49778053e-01  6.46289364e-02
   1.73812091e-01  4.69176956e-02]
 [ 7.86308665e-03 -1.34945318e-01  3.13104354e-02 -9.10496116e-02
   1.03533156e-01 -1.05450720e-01 -6.60621449e-02 -2.37252340e-02
  -2.56430745e-01 -1.47000760e-01]
 [ 2.64836222e-01  5.81643404e-03 -1.39996231e-01 -2.74171501e-01
   9.40630436e-02 -2.05315530e-01  1.11009985e-01  8.83891508e-02
   7.59106502e-02 -6.03880361e-02]
 [ 9.15995147e-03 -2.74676234e-01  8.55935514e-02 -4.44571413e-02
  -7.35602826e-02 -8.60919058e-02  1.80600449e-01  3.83479036e-02
  -2.24881694e-01  1.32419214e-01]
 [ 2.03021802e-02  1.42712235e-01 -7.07604587e-02 -2.64021028e-02
  -9.36173499e-02  2.21627891e-01 -2.42610574e-01 -6.46819323e-02
  -1.65624946e-01  1.67338222e-01]
 [-1.20742619e-01  2.47689560e-01 -1.64791003e-01  1.77056462e-01
   2.32288182e-01 -3.29731032e-02 -4.08648215e-02 -9.05061662e-02
  -2.74753958e-01 -3.81024070e-02]
 [ 6.66705891e-02 -2.48738900e-01 -1.78423062e-01  3.26418405e-04
   1.77844673e-01 -1.47506952e-01 -2.29766369e-01 -1.51693508e-01
  -7.01226443e-02 -1.96718976e-01]
 [ 2.65145063e-01 -1.85696036e-01  4.44514267e-02 -2.12073535e-01
  -1.17578380e-01 -1.58291087e-02 -2.14215115e-01  5.81627414e-02
   3.07730228e-01 -1.34764865e-01]
 [-2.24740818e-01  7.36586377e-02 -1.41993254e-01 -4.53883074e-02
  -1.18302062e-01  4.47135530e-02 -2.05675066e-01  1.97567374e-01
  -2.00930655e-01  5.05372472e-02]
 [ 6.39465451e-02 -6.69156015e-02 -2.50988826e-02 -2.59096503e-01
   1.50903940e-01  1.62842751e-01  1.80808082e-01 -2.13384777e-01
   2.43473396e-01 -1.64300323e-01]
 [ 1.46709988e-02  6.78447932e-02  1.55034885e-01 -2.30543911e-01
   7.51511753e-02 -1.73129439e-01 -2.26423085e-01 -2.99937949e-02
  -4.62632999e-03 -2.20464721e-01]
 [ 1.74460173e-01 -2.67776132e-01  1.28599644e-01  1.26497135e-01
  -1.93851776e-02 -1.45474553e-01 -1.10902764e-01 -1.62285447e-01
   9.50795561e-02 -9.85701159e-02]]
le_net5/dense_2/bias:0
(10,)
[-0.00714755  0.00341014  0.0226959  -0.01389939  0.01803101 -0.00213181
 -0.00411893 -0.01512342  0.00266323  0.00291413]
